<?xml version="1.0"?>
<opencv_storage>
<cascade>
  <stageType>BOOST</stageType>
  <featureType>LBP</featureType>
  <height>50</height>
  <width>50</width>
  <stageParams>
    <boostType>GAB</boostType>
    <minHitRate>9.9500000476837158e-01</minHitRate>
    <maxFalseAlarm>5.0000000000000000e-01</maxFalseAlarm>
    <weightTrimRate>9.4999999999999996e-01</weightTrimRate>
    <maxDepth>1</maxDepth>
    <maxWeakCount>100</maxWeakCount></stageParams>
  <featureParams>
    <maxCatCount>256</maxCatCount>
    <featSize>1</featSize></featureParams>
  <stageNum>15</stageNum>
  <stages>
    <!-- stage 0 -->
    <_>
      <maxWeakCount>8</maxWeakCount>
      <stageThreshold>-4.3319222331047058e-01</stageThreshold>
      <weakClassifiers>
        <_>
          <internalNodes>
            0 -1 4 -160441049 -2002727385 -1090978016 33731110
            1047912276 620232507 -25879296 -722207961</internalNodes>
          <leafValues>
            -2.1478381752967834e-01 7.4065685272216797e-01</leafValues></_>
        <_>
          <internalNodes>
            0 -1 21 -991959346 -8388920 801770285 1598415949 -1971907073
            -436792746 -511723521 -572540929</internalNodes>
          <leafValues>
            -3.2339733839035034e-01 6.8367636203765869e-01</leafValues></_>
        <_>
          <internalNodes>
            0 -1 114 -205798000 -715974767 -754851184 -1789536411
            1241596072 134352904 33624215 232783091</internalNodes>
          <leafValues>
            -5.1852452754974365e-01 4.4485697150230408e-01</leafValues></_>
        <_>
          <internalNodes>
            0 -1 13 -873994409 3318836 -1962938650 537406183 607601985
            -598655404 1182016885 -1033382153</internalNodes>
          <leafValues>
            -3.4561443328857422e-01 6.6780877113342285e-01</leafValues></_>
        <_>
          <internalNodes>
            0 -1 80 -538131864 458338387 487070302 340943391 1917575848
            705406998 -1339965304 387385387</internalNodes>
          <leafValues>
            -5.9042650461196899e-01 3.5456940531730652e-01</leafValues></_>
        <_>
          <internalNodes>
            0 -1 41 1696939379 2000414573 -4227337 2099386896
            -1073831938 -1083902145 1442817258 -387705784</internalNodes>
          <leafValues>
            -2.9037946462631226e-01 6.8716537952423096e-01</leafValues></_>
        <_>
          <internalNodes>
            0 -1 129 -717256574 889252354 -788475511 290583155
            -1013640749 1241841680 2019156166 1959240655</internalNodes>
          <leafValues>
            -4.6999874711036682e-01 4.4721829891204834e-01</leafValues></_>
        <_>
          <internalNodes>
            0 -1 133 -1017998656 -1991134186 352391429 94611606
            545432021 218323202 1082388945 -1345336629</internalNodes>
          <leafValues>
            -4.7189372777938843e-01 4.5771965384483337e-01</leafValues></_></weakClassifiers></_>
    <!-- stage 1 -->
    <_>
      <maxWeakCount>9</maxWeakCount>
      <stageThreshold>-7.8544139862060547e-01</stageThreshold>
      <weakClassifiers>
        <_>
          <internalNodes>
            0 -1 20 -141638782 -140153206 1629452051 -608999648
            -1938896945 -1460962051 -973873153 -710418945</internalNodes>
          <leafValues>
            -1.8609407544136047e-01 7.3456436395645142e-01</leafValues></_>
        <_>
          <internalNodes>
            0 -1 7 -138674433 1971465474 2112766752 -80944640 397664759
            526745190 1291663255 -141035893</internalNodes>
          <leafValues>
            -2.6401710510253906e-01 6.8607431650161743e-01</leafValues></_>
        <_>
          <internalNodes>
            0 -1 75 1466818903 301448792 981082039 -72678542 -679491074
            1431658487 -1200231253 -335561593</internalNodes>
          <leafValues>
            -2.9165658354759216e-01 6.5007179975509644e-01</leafValues></_>
        <_>
          <internalNodes>
            0 -1 130 -136847120 -750679680 302006528 1506398340
            185641898 111354848 172619922 132110759</internalNodes>
          <leafValues>
            -5.0869715213775635e-01 3.9868372678756714e-01</leafValues></_>
        <_>
          <internalNodes>
            0 -1 17 -489757899 -2045292133 -1861447673 -1362282081
            25821958 -978319319 -1021142784 -211836693</internalNodes>
          <leafValues>
            -4.6977284550666809e-01 4.5208746194839478e-01</leafValues></_>
        <_>
          <internalNodes>
            0 -1 120 -499085098 -616862088 2147216959 1567648011
            -1302280466 -562040970 -234108994 -1457821638</internalNodes>
          <leafValues>
            -3.7955263257026672e-01 5.6735515594482422e-01</leafValues></_>
        <_>
          <internalNodes>
            0 -1 24 -908539684 -2139070820 -922694452 878461078
            1007275664 1082794538 1973426315 429499855</internalNodes>
          <leafValues>
            -5.3650331497192383e-01 4.2315655946731567e-01</leafValues></_>
        <_>
          <internalNodes>
            0 -1 39 2080585493 1462845302 -16863245 872298086
            -1359970346 -692290187 -1772218643 -1140839368</internalNodes>
          <leafValues>
            -4.1991561651229858e-01 5.1597410440444946e-01</leafValues></_>
        <_>
          <internalNodes>
            0 -1 96 -736957374 290206209 -2147477362 1230144390
            -133511000 -544735224 -1778194213 2064612539</internalNodes>
          <leafValues>
            -5.0417923927307129e-01 4.3824827671051025e-01</leafValues></_></weakClassifiers></_>
    <!-- stage 2 -->
    <_>
      <maxWeakCount>8</maxWeakCount>
      <stageThreshold>-5.8119970560073853e-01</stageThreshold>
      <weakClassifiers>
        <_>
          <internalNodes>
            0 -1 67 1320815419 1002144475 -268558401 530515839 762206292
            249855087 -268912940 -1351099577</internalNodes>
          <leafValues>
            -2.7491408586502075e-01 6.4833003282546997e-01</leafValues></_>
        <_>
          <internalNodes>
            0 -1 31 -1467768182 -678588416 318841279 -136626031
            139322815 -1425940341 350834927 1423921269</internalNodes>
          <leafValues>
            -4.8786437511444092e-01 4.3637651205062866e-01</leafValues></_>
        <_>
          <internalNodes>
            0 -1 104 -35139152 -243208176 -922144291 1935182485
            428138994 -1740369792 268457101 471028115</internalNodes>
          <leafValues>
            -5.2201890945434570e-01 3.9404267072677612e-01</leafValues></_>
        <_>
          <internalNodes>
            0 -1 99 -120817673 2079764531 1857334945 -1574814861
            -294255398 -274235393 -17955920 -1427932289</internalNodes>
          <leafValues>
            -4.4578132033348083e-01 4.5966476202011108e-01</leafValues></_>
        <_>
          <internalNodes>
            0 -1 6 -33562777 179949106 -624863 11708100 1677161843
            -432996362 1954252336 -156248849</internalNodes>
          <leafValues>
            -3.6818757653236389e-01 5.8550196886062622e-01</leafValues></_>
        <_>
          <internalNodes>
            0 -1 109 -935804705 -620922006 -68849861 859455327
            -756089154 -50864164 -1277514613 -618593269</internalNodes>
          <leafValues>
            -3.1090518832206726e-01 6.4879661798477173e-01</leafValues></_>
        <_>
          <internalNodes>
            0 -1 40 -301796902 -37535736 286372225 567806080 -2113404792
            -443905830 -1542378838 956418063</internalNodes>
          <leafValues>
            -4.1232573986053467e-01 4.6683478355407715e-01</leafValues></_>
        <_>
          <internalNodes>
            0 -1 97 2077028786 -158489852 21049611 1325482305
            -1597423376 -1305608063 1393068060 1477687087</internalNodes>
          <leafValues>
            -4.6542921662330627e-01 4.4557535648345947e-01</leafValues></_></weakClassifiers></_>
    <!-- stage 3 -->
    <_>
      <maxWeakCount>9</maxWeakCount>
      <stageThreshold>-1.3301002979278564e+00</stageThreshold>
      <weakClassifiers>
        <_>
          <internalNodes>
            0 -1 50 -181407534 -102146 334295857 1064561266 -43183246
            -1074965137 -172697777 -143423753</internalNodes>
          <leafValues>
            -1.6094276309013367e-01 7.2244900465011597e-01</leafValues></_>
        <_>
          <internalNodes>
            0 -1 73 16736253 -1208005377 184428281 1072709156 49551002
            -1090519050 267824268 -1207423744</internalNodes>
          <leafValues>
            -2.2736939787864685e-01 6.9405668973922729e-01</leafValues></_>
        <_>
          <internalNodes>
            0 -1 44 -806760120 2070254452 16896304 -551443080
            -1040126072 -1157064564 -729177376 -1086966326</internalNodes>
          <leafValues>
            -4.2879414558410645e-01 4.6826708316802979e-01</leafValues></_>
        <_>
          <internalNodes>
            0 -1 3 -109969666 -677126098 2128882334 -148643296
            1649862655 1945599597 1584558558 -1275099950</internalNodes>
          <leafValues>
            -4.0015563368797302e-01 5.0771170854568481e-01</leafValues></_>
        <_>
          <internalNodes>
            0 -1 90 -562041165 -1707784970 -285216769 -50479369
            -1267292684 1949548287 620046141 -357306253</internalNodes>
          <leafValues>
            -3.6777159571647644e-01 5.4136312007904053e-01</leafValues></_>
        <_>
          <internalNodes>
            0 -1 36 -210513583 1930672048 804170235 -1746267945 -8390740
            -1393098765 -433083681 -1991528023</internalNodes>
          <leafValues>
            -2.5585132837295532e-01 6.8616843223571777e-01</leafValues></_>
        <_>
          <internalNodes>
            0 -1 136 -67407791 608068731 2130540602 1571475307
            -100804934 -671881 2048667224 -2111777190</internalNodes>
          <leafValues>
            -4.2082226276397705e-01 4.6600362658500671e-01</leafValues></_>
        <_>
          <internalNodes>
            0 -1 81 1623652785 898748430 1378569 1913359514 315195941
            1359585280 1678334733 -274335232</internalNodes>
          <leafValues>
            -5.1628559827804565e-01 3.6096706986427307e-01</leafValues></_>
        <_>
          <internalNodes>
            0 -1 72 -78841892 1403125722 242215367 -542261450 -281516290
            -144674993 577940154 -1909518259</internalNodes>
          <leafValues>
            -3.6910966038703918e-01 5.2368539571762085e-01</leafValues></_></weakClassifiers></_>
    <!-- stage 4 -->
    <_>
      <maxWeakCount>9</maxWeakCount>
      <stageThreshold>-8.0659824609756470e-01</stageThreshold>
      <weakClassifiers>
        <_>
          <internalNodes>
            0 -1 56 -76287248 -551836098 -1208647937 -1445982705
            -161140826 -1118317194 -428581009 1561711199</internalNodes>
          <leafValues>
            -2.1696573495864868e-01 6.4133739471435547e-01</leafValues></_>
        <_>
          <internalNodes>
            0 -1 111 83788637 402141180 267725973 364429304 83692761
            -1191945026 477103832 -1121976224</internalNodes>
          <leafValues>
            -3.5472545027732849e-01 5.4447674751281738e-01</leafValues></_>
        <_>
          <internalNodes>
            0 -1 107 1681442559 1008893868 -285545424 -273056581
            2094980600 -1360117890 1873890762 -923189537</internalNodes>
          <leafValues>
            -3.9997270703315735e-01 4.9024063348770142e-01</leafValues></_>
        <_>
          <internalNodes>
            0 -1 27 -150285090 1515211020 1107313666 856719488
            1913202878 940974086 942475454 2128573247</internalNodes>
          <leafValues>
            -4.3849542737007141e-01 4.2871630191802979e-01</leafValues></_>
        <_>
          <internalNodes>
            0 -1 9 -168957969 -1240915200 268258541 1938104328
            1157439903 1428702668 83764669 1131397167</internalNodes>
          <leafValues>
            -3.9133456349372864e-01 4.8209658265113831e-01</leafValues></_>
        <_>
          <internalNodes>
            0 -1 58 1924703895 -227197168 -869328257 603946006 68527560
            -1156763692 1091939981 -1155665508</internalNodes>
          <leafValues>
            -3.5490536689758301e-01 5.3524953126907349e-01</leafValues></_>
        <_>
          <internalNodes>
            0 -1 131 -574096382 -107694976 -2097110653 530391183
            -1033740284 -599785400 1343275707 418351146</internalNodes>
          <leafValues>
            -4.7983103990554810e-01 3.9011281728744507e-01</leafValues></_>
        <_>
          <internalNodes>
            0 -1 47 1895674043 -147507609 -748388395 -1555466657
            -312403728 1767710806 -38291474 -1438209041</internalNodes>
          <leafValues>
            -3.1464120745658875e-01 5.9566259384155273e-01</leafValues></_>
        <_>
          <internalNodes>
            0 -1 71 1582621904 2043712722 302122333 -1892967998
            947931656 1121009769 169933466 1048906171</internalNodes>
          <leafValues>
            -4.7351527214050293e-01 3.9575681090354919e-01</leafValues></_></weakClassifiers></_>
    <!-- stage 5 -->
    <_>
      <maxWeakCount>10</maxWeakCount>
      <stageThreshold>-6.6029518842697144e-01</stageThreshold>
      <weakClassifiers>
        <_>
          <internalNodes>
            0 -1 53 -186137761 -39493897 158085041 2146119423 473358152
            -25203899 1199628229 2067861340</internalNodes>
          <leafValues>
            -2.1405228972434998e-01 6.3866394758224487e-01</leafValues></_>
        <_>
          <internalNodes>
            0 -1 5 -214440681 216395119 -16908554 808504034 74544757
            1304919925 2138432948 -489168153</internalNodes>
          <leafValues>
            -2.3254203796386719e-01 6.7807352542877197e-01</leafValues></_>
        <_>
          <internalNodes>
            0 -1 115 1960043518 256676882 1610663664 -1957052198
            -653682516 195084337 50958804 160160714</internalNodes>
          <leafValues>
            -4.7797337174415588e-01 3.8100257515907288e-01</leafValues></_>
        <_>
          <internalNodes>
            0 -1 38 -981303112 -542998453 -2130656865 -706772833
            1912770025 -921862013 209851117 1562329109</internalNodes>
          <leafValues>
            -4.4331601262092590e-01 3.9486455917358398e-01</leafValues></_>
        <_>
          <internalNodes>
            0 -1 15 -285479921 51592510 -1342394387 -270565505
            -944372167 1845391222 217406800 -301994053</internalNodes>
          <leafValues>
            -3.3753660321235657e-01 5.6331294775009155e-01</leafValues></_>
        <_>
          <internalNodes>
            0 -1 113 -1037571629 2066853287 1407578929 1129295400
            342359473 1148470613 391519645 508519095</internalNodes>
          <leafValues>
            -3.9944100379943848e-01 4.5136711001396179e-01</leafValues></_>
        <_>
          <internalNodes>
            0 -1 82 2052697858 -47048127 1090568603 421076131
            -1205479382 -804749051 -1433867862 796355806</internalNodes>
          <leafValues>
            -4.7339475154876709e-01 3.8006678223609924e-01</leafValues></_>
        <_>
          <internalNodes>
            0 -1 19 -1018409506 1041598280 -788409911 -1803206306
            176240777 824607496 224909511 815317759</internalNodes>
          <leafValues>
            -5.5000352859497070e-01 3.2694542407989502e-01</leafValues></_>
        <_>
          <internalNodes>
            0 -1 118 -788286542 201388033 1090830339 1233334961
            -296816580 -481589114 143560971 1105187225</internalNodes>
          <leafValues>
            -4.6667161583900452e-01 4.0506941080093384e-01</leafValues></_>
        <_>
          <internalNodes>
            0 -1 25 1275254014 1527742546 1342179615 1060329540
            100714650 -1415937981 -2125948138 2117183550</internalNodes>
          <leafValues>
            -4.8146334290504456e-01 3.9355811476707458e-01</leafValues></_></weakClassifiers></_>
    <!-- stage 6 -->
    <_>
      <maxWeakCount>11</maxWeakCount>
      <stageThreshold>-5.1763039827346802e-01</stageThreshold>
      <weakClassifiers>
        <_>
          <internalNodes>
            0 -1 60 1521934071 -537948996 528422455 1433401214
            1233020790 2049576032 1295109355 2065787947</internalNodes>
          <leafValues>
            -2.0681264996528625e-01 6.3802742958068848e-01</leafValues></_>
        <_>
          <internalNodes>
            0 -1 98 -723853645 -1699508495 -8720657 -663922315
            -2072003459 259522555 -465764353 -348130881</internalNodes>
          <leafValues>
            -2.6153787970542908e-01 6.2789827585220337e-01</leafValues></_>
        <_>
          <internalNodes>
            0 -1 0 -17828041 -822628434 -1363611832 -492389654
            -172886269 -692912814 -176242640 -486812633</internalNodes>
          <leafValues>
            -3.2064887881278992e-01 5.4142665863037109e-01</leafValues></_>
        <_>
          <internalNodes>
            0 -1 35 925056631 2134142838 -16826563 1968319586 124943353
            -353346209 -1662378776 -1140298720</internalNodes>
          <leafValues>
            -3.7733340263366699e-01 4.7611448168754578e-01</leafValues></_>
        <_>
          <internalNodes>
            0 -1 102 2086392064 -12451751 -1756296907 855658788
            -2004217856 961183753 -1417109173 812197194</internalNodes>
          <leafValues>
            -6.0283690690994263e-01 2.7851602435112000e-01</leafValues></_>
        <_>
          <internalNodes>
            0 -1 46 -1819246048 2107260985 304169216 1968570452
            -2004254533 -2004024955 -1190786133 1801406479</internalNodes>
          <leafValues>
            -4.3149811029434204e-01 4.1937375068664551e-01</leafValues></_>
        <_>
          <internalNodes>
            0 -1 45 -94713133 -79975302 -861766991 1964547631 -965029688
            2048134460 -1967333127 1594574095</internalNodes>
          <leafValues>
            -4.0259182453155518e-01 4.8351979255676270e-01</leafValues></_>
        <_>
          <internalNodes>
            0 -1 117 -454891201 1383541278 -1157981642 454065786
            -1746111762 -883064865 -67797605 -2012064277</internalNodes>
          <leafValues>
            -3.4013450145721436e-01 5.0747859477996826e-01</leafValues></_>
        <_>
          <internalNodes>
            0 -1 85 1832908594 2074295994 1849624113 1073302971
            1056693663 2063785840 653786853 -420225865</internalNodes>
          <leafValues>
            -3.5614505410194397e-01 5.0410366058349609e-01</leafValues></_>
        <_>
          <internalNodes>
            0 -1 103 -806902313 -194300634 1342000637 -1666530078
            1392216007 -837641 528142019 -699673619</internalNodes>
          <leafValues>
            -2.9926186800003052e-01 5.9448802471160889e-01</leafValues></_>
        <_>
          <internalNodes>
            0 -1 137 -608175485 -2020905031 -536903753 301276979
            1426062799 1270349757 -841022448 -301990418</internalNodes>
          <leafValues>
            -3.1560230255126953e-01 5.7789438962936401e-01</leafValues></_></weakClassifiers></_>
    <!-- stage 7 -->
    <_>
      <maxWeakCount>10</maxWeakCount>
      <stageThreshold>-1.0921007394790649e+00</stageThreshold>
      <weakClassifiers>
        <_>
          <internalNodes>
            0 -1 57 -1918258397 -712980493 2113796094 -974475597
            -1652606662 -2130887692 -172593219 -806375947</internalNodes>
          <leafValues>
            -1.1776447296142578e-01 6.9357687234878540e-01</leafValues></_>
        <_>
          <internalNodes>
            0 -1 30 -848833039 1608926199 2101080561 -168447597
            1207940543 -305299476 1145525367 1844925875</internalNodes>
          <leafValues>
            -3.0747622251510620e-01 5.2748745679855347e-01</leafValues></_>
        <_>
          <internalNodes>
            0 -1 22 -84227898 -754482036 16781575 -1020717046 537449418
            -1031796667 1141576082 2063795727</internalNodes>
          <leafValues>
            -4.1885933279991150e-01 3.9564406871795654e-01</leafValues></_>
        <_>
          <internalNodes>
            0 -1 62 106660919 1548747988 1024569559 -989111229
            1547623868 -1659174648 1799359232 -337914117</internalNodes>
          <leafValues>
            -3.9137467741966248e-01 4.2187419533729553e-01</leafValues></_>
        <_>
          <internalNodes>
            0 -1 91 -465440164 -993984494 1744945503 -611510254
            -1867789862 1225285648 137089116 1091027142</internalNodes>
          <leafValues>
            -5.1892542839050293e-01 3.0715942382812500e-01</leafValues></_>
        <_>
          <internalNodes>
            0 -1 42 1945231327 -498121093 -46526 -750170416 -675833413
            -1376688297 -1369481381 -1544446209</internalNodes>
          <leafValues>
            -3.0499330163002014e-01 5.8639001846313477e-01</leafValues></_>
        <_>
          <internalNodes>
            0 -1 7 1941961207 516091812 -1108585750 -671538492
            1463443679 2145910519 1291146628 -873611197</internalNodes>
          <leafValues>
            -3.5683792829513550e-01 5.1628249883651733e-01</leafValues></_>
        <_>
          <internalNodes>
            0 -1 106 -67895312 -548256560 -1450978243 1567474076
            1158791341 755009678 620834202 1297186981</internalNodes>
          <leafValues>
            -4.4332641363143921e-01 4.3435215950012207e-01</leafValues></_>
        <_>
          <internalNodes>
            0 -1 84 2047336701 923243345 1342193800 1565021572 537457128
            -1299312502 -402422840 -1800124116</internalNodes>
          <leafValues>
            -4.0194046497344971e-01 4.3762215971946716e-01</leafValues></_>
        <_>
          <internalNodes>
            0 -1 122 1666969843 -1189020336 754322332 -38421709 74547397
            607673968 1899090360 1603788975</internalNodes>
          <leafValues>
            -3.6477136611938477e-01 4.8493033647537231e-01</leafValues></_></weakClassifiers></_>
    <!-- stage 8 -->
    <_>
      <maxWeakCount>9</maxWeakCount>
      <stageThreshold>-1.0690231323242188e+00</stageThreshold>
      <weakClassifiers>
        <_>
          <internalNodes>
            0 -1 69 -72609809 -1440076170 -1301660673 2147226991
            1433938262 131594098 -134348801 1937205063</internalNodes>
          <leafValues>
            -2.7438467741012573e-01 6.1864006519317627e-01</leafValues></_>
        <_>
          <internalNodes>
            0 -1 141 -226492417 -264570881 -20156751 709940258
            2088263240 1496768252 -286208498 -368918334</internalNodes>
          <leafValues>
            -3.1801906228065491e-01 5.4058051109313965e-01</leafValues></_>
        <_>
          <internalNodes>
            0 -1 119 74780127 532479669 -604004385 -1111703845
            -2101444643 -51052805 1287466461 -5231384</internalNodes>
          <leafValues>
            -3.3731865882873535e-01 5.1475465297698975e-01</leafValues></_>
        <_>
          <internalNodes>
            0 -1 37 -117182061 -68305039 -302340817 -35406621 -449342029
            -1614846605 -1003104877 -874012503</internalNodes>
          <leafValues>
            -2.6681587100028992e-01 6.4128488302230835e-01</leafValues></_>
        <_>
          <internalNodes>
            0 -1 100 742005599 -1441132265 285487134 -1128615162
            1932923253 1258303515 -1006470812 -1259710164</internalNodes>
          <leafValues>
            -5.7077533006668091e-01 3.0397960543632507e-01</leafValues></_>
        <_>
          <internalNodes>
            0 -1 89 -577244286 -708259804 1150868572 -613056482 9145129
            -1660769663 131328 138101911</internalNodes>
          <leafValues>
            -5.7049262523651123e-01 3.3564254641532898e-01</leafValues></_>
        <_>
          <internalNodes>
            0 -1 74 1762908517 940661105 -603913121 599736671
            -1710548363 -113672143 680220969 -1876624096</internalNodes>
          <leafValues>
            -4.9676957726478577e-01 3.5690400004386902e-01</leafValues></_>
        <_>
          <internalNodes>
            0 -1 14 -984135857 -1610186881 -1225199690 -1260917085
            -168339625 -1233649802 -192972956 -455914133</internalNodes>
          <leafValues>
            -4.1334396600723267e-01 4.6223440766334534e-01</leafValues></_>
        <_>
          <internalNodes>
            0 -1 29 -419206774 563204513 276893773 -1034223353
            1074711230 -1501425534 1452382367 1504369147</internalNodes>
          <leafValues>
            -4.5763266086578369e-01 4.1504687070846558e-01</leafValues></_></weakClassifiers></_>
    <!-- stage 9 -->
    <_>
      <maxWeakCount>10</maxWeakCount>
      <stageThreshold>-5.6399118900299072e-01</stageThreshold>
      <weakClassifiers>
        <_>
          <internalNodes>
            0 -1 79 -412092881 2035400559 -1090523649 1073540323
            45838106 729251701 -8949962 284522047</internalNodes>
          <leafValues>
            -2.3306947946548462e-01 6.1318469047546387e-01</leafValues></_>
        <_>
          <internalNodes>
            0 -1 108 -1945183011 -1379950849 -839307787 146472442
            -832600618 -395878665 804738397 -324106279</internalNodes>
          <leafValues>
            -3.8955739140510559e-01 4.5394137501716614e-01</leafValues></_>
        <_>
          <internalNodes>
            0 -1 32 -1576885887 -644635886 -1559672675 -250785661
            -1711038293 1482119173 277487773 1427587157</internalNodes>
          <leafValues>
            -5.2842634916305542e-01 3.5069200396537781e-01</leafValues></_>
        <_>
          <internalNodes>
            0 -1 16 -420745717 -2134143323 -1879249049 -2102395677
            1112968772 1710620535 -2040017563 -235149329</internalNodes>
          <leafValues>
            -3.3234015107154846e-01 5.5213254690170288e-01</leafValues></_>
        <_>
          <internalNodes>
            0 -1 49 -282085931 233518306 1594650317 -873713811
            -568478544 -1078587803 1115469515 -342758226</internalNodes>
          <leafValues>
            -3.5039103031158447e-01 5.2414613962173462e-01</leafValues></_>
        <_>
          <internalNodes>
            0 -1 68 2017247250 1478049888 1342316625 26472625
            -1599168268 2015571988 991097073 2034878476</internalNodes>
          <leafValues>
            -4.7188869118690491e-01 3.7938469648361206e-01</leafValues></_>
        <_>
          <internalNodes>
            0 -1 132 -99159086 322998289 285434746 278216722 -1828151139
            1946505224 1652787724 215984875</internalNodes>
          <leafValues>
            -5.0468212366104126e-01 3.7653610110282898e-01</leafValues></_>
        <_>
          <internalNodes>
            0 -1 124 -645030166 1528238404 118214659 835572033
            1250547870 2080485381 1084461595 491638927</internalNodes>
          <leafValues>
            -4.3487855792045593e-01 4.2839944362640381e-01</leafValues></_>
        <_>
          <internalNodes>
            0 -1 101 -1741243489 1903061303 -269979813 358557195
            -1610394146 -1359479876 1920926591 -348168694</internalNodes>
          <leafValues>
            -3.2132160663604736e-01 6.0413289070129395e-01</leafValues></_>
        <_>
          <internalNodes>
            0 -1 140 -386032857 771673518 -201331918 1533542240
            -671111707 -1896874029 -621312508 -857515546</internalNodes>
          <leafValues>
            -4.0174007415771484e-01 4.6580117940902710e-01</leafValues></_></weakClassifiers></_>
    <!-- stage 10 -->
    <_>
      <maxWeakCount>10</maxWeakCount>
      <stageThreshold>-7.7410864830017090e-01</stageThreshold>
      <weakClassifiers>
        <_>
          <internalNodes>
            0 -1 66 454757367 -1082644233 1061108711 1937628727
            448600660 -1677975554 519333376 -342885769</internalNodes>
          <leafValues>
            -2.0819671452045441e-01 6.3333332538604736e-01</leafValues></_>
        <_>
          <internalNodes>
            0 -1 127 24911839 960118783 800929789 431104862 968875179
            -545333506 -1158922840 -1397965628</internalNodes>
          <leafValues>
            -3.3205318450927734e-01 5.3692901134490967e-01</leafValues></_>
        <_>
          <internalNodes>
            0 -1 28 2082743351 2118590143 519913471 -1615565576
            2013219500 -1419936108 -1381598727 -120576620</internalNodes>
          <leafValues>
            -3.8710001111030579e-01 4.7460636496543884e-01</leafValues></_>
        <_>
          <internalNodes>
            0 -1 77 -720470608 1967292741 -1845452992 989970821
            305518804 -1971248843 1342623760 -1755381203</internalNodes>
          <leafValues>
            -4.8613435029983521e-01 3.7591269612312317e-01</leafValues></_>
        <_>
          <internalNodes>
            0 -1 12 -488900553 243843521 -1878986715 -1568368638
            402801781 1887737985 1370497568 -529683834</internalNodes>
          <leafValues>
            -4.5843249559402466e-01 3.7654915452003479e-01</leafValues></_>
        <_>
          <internalNodes>
            0 -1 76 1441198933 939261951 715614595 -2081104090
            1298949863 -596287673 578183347 -1651377142</internalNodes>
          <leafValues>
            -3.8792669773101807e-01 4.6033105254173279e-01</leafValues></_>
        <_>
          <internalNodes>
            0 -1 121 1557383918 2144485974 -925835070 377571679
            1137934466 1661011213 415572106 1100948331</internalNodes>
          <leafValues>
            -4.8309990763664246e-01 3.6829042434692383e-01</leafValues></_>
        <_>
          <internalNodes>
            0 -1 83 1342501201 1547849733 562070165 1213317632
            -1197872658 -2004842464 -116880849 480243354</internalNodes>
          <leafValues>
            -4.1838800907135010e-01 4.1996753215789795e-01</leafValues></_>
        <_>
          <internalNodes>
            0 -1 128 2065013667 -2146959352 -1811769067 1197052169
            -2059331454 50882765 25772496 1204937029</internalNodes>
          <leafValues>
            -5.5525708198547363e-01 3.3812654018402100e-01</leafValues></_>
        <_>
          <internalNodes>
            0 -1 54 -1860760286 -242863359 613872332 -1085226816
            -266137054 -2088758776 1201328095 -550154298</internalNodes>
          <leafValues>
            -4.5415338873863220e-01 4.0016040205955505e-01</leafValues></_></weakClassifiers></_>
    <!-- stage 11 -->
    <_>
      <maxWeakCount>10</maxWeakCount>
      <stageThreshold>-7.8841692209243774e-01</stageThreshold>
      <weakClassifiers>
        <_>
          <internalNodes>
            0 -1 63 373203890 -138084874 1878846383 1307443060
            1059563451 -17342657 209665817 -843092184</internalNodes>
          <leafValues>
            -2.6919680833816528e-01 6.1260801553726196e-01</leafValues></_>
        <_>
          <internalNodes>
            0 -1 78 1354225719 -799687630 -453123337 -647823569
            1458961487 346422583 240479111 949604011</internalNodes>
          <leafValues>
            -4.0284436941146851e-01 4.6494632959365845e-01</leafValues></_>
        <_>
          <internalNodes>
            0 -1 51 -292680873 -5491018 768474463 -1357676675 -548415848
            533646364 -1143097864 -1140138245</internalNodes>
          <leafValues>
            -3.8390341401100159e-01 4.8510724306106567e-01</leafValues></_>
        <_>
          <internalNodes>
            0 -1 11 -882381829 1231081021 1655571561 -1037695897
            -1961767050 -1606123916 115674491 -817502465</internalNodes>
          <leafValues>
            -2.8602871298789978e-01 5.8874911069869995e-01</leafValues></_>
        <_>
          <internalNodes>
            0 -1 105 -137113360 -1328627641 1090618315 -389754368
            672241083 1808629979 1375942907 -1751129959</internalNodes>
          <leafValues>
            -4.2194852232933044e-01 4.2851704359054565e-01</leafValues></_>
        <_>
          <internalNodes>
            0 -1 34 84157557 428347543 286382443 -1199304049 -225421647
            -1744166897 -1113380712 -381417392</internalNodes>
          <leafValues>
            -5.4266840219497681e-01 3.5551863908767700e-01</leafValues></_>
        <_>
          <internalNodes>
            0 -1 93 2062564027 2103038291 1074027411 67301718 1677971703
            1497383489 -1120482972 1564226322</internalNodes>
          <leafValues>
            -4.9026274681091309e-01 3.5651528835296631e-01</leafValues></_>
        <_>
          <internalNodes>
            0 -1 1 -270339886 -783944986 1074384988 1464909834
            1212279484 2140700947 1108019312 1363923548</internalNodes>
          <leafValues>
            -5.1785826683044434e-01 3.6293926835060120e-01</leafValues></_>
        <_>
          <internalNodes>
            0 -1 112 -208678110 1225031813 1375785235 -711621303
            94863757 -1383284711 1210630171 2037378523</internalNodes>
          <leafValues>
            -4.5858821272850037e-01 4.2476421594619751e-01</leafValues></_>
        <_>
          <internalNodes>
            0 -1 55 1930993722 -779841001 68976079 -452600699 361046169
            -2147310456 -750354741 598991498</internalNodes>
          <leafValues>
            -4.8118340969085693e-01 3.8205394148826599e-01</leafValues></_></weakClassifiers></_>
    <!-- stage 12 -->
    <_>
      <maxWeakCount>9</maxWeakCount>
      <stageThreshold>-1.1700512170791626e+00</stageThreshold>
      <weakClassifiers>
        <_>
          <internalNodes>
            0 -1 95 -578850852 1002272553 -302284985 740097847
            -1375945041 -352624769 -836424077 -118489313</internalNodes>
          <leafValues>
            -1.5688949823379517e-01 6.9155448675155640e-01</leafValues></_>
        <_>
          <internalNodes>
            0 -1 61 1584384510 997809407 -1358962693 -1342456085
            -1367406380 -1982562819 -1434484741 -1357295807</internalNodes>
          <leafValues>
            -3.5931661725044250e-01 5.1277363300323486e-01</leafValues></_>
        <_>
          <internalNodes>
            0 -1 135 -598215562 1917027477 -519843712 541802719
            -224005928 1795760152 -1971206070 1080622090</internalNodes>
          <leafValues>
            -5.2156955003738403e-01 3.5462895035743713e-01</leafValues></_>
        <_>
          <internalNodes>
            0 -1 125 265213950 377847956 4376588 -1223621544 411437213
            -1107165048 713035912 -1845669404</internalNodes>
          <leafValues>
            -4.9621647596359253e-01 3.5875537991523743e-01</leafValues></_>
        <_>
          <internalNodes>
            0 -1 43 -771590409 2063958020 1344438358 -1135583004
            -1039064009 1225466242 546998858 -788148245</internalNodes>
          <leafValues>
            -4.2220780253410339e-01 4.3597424030303955e-01</leafValues></_>
        <_>
          <internalNodes>
            0 -1 123 -598113212 1607682311 873566559 169196850
            -1147645440 -14245848 -1467424358 1347191107</internalNodes>
          <leafValues>
            -5.5337792634963989e-01 3.4280246496200562e-01</leafValues></_>
        <_>
          <internalNodes>
            0 -1 10 1966318539 535478080 318711420 1998661774 91517951
            -50428065 1207898759 -830520629</internalNodes>
          <leafValues>
            -4.0761196613311768e-01 4.9517562985420227e-01</leafValues></_>
        <_>
          <internalNodes>
            0 -1 86 1846440276 272793622 -1743105704 -206971885
            1254136005 -631209441 711762004 -1344616241</internalNodes>
          <leafValues>
            -4.8592966794967651e-01 4.0083882212638855e-01</leafValues></_>
        <_>
          <internalNodes>
            0 -1 92 -363918093 1816338464 1107366297 -1076804970
            -720924026 882212864 -2008102155 -1176131348</internalNodes>
          <leafValues>
            -4.4209823012351990e-01 4.5771530270576477e-01</leafValues></_></weakClassifiers></_>
    <!-- stage 13 -->
    <_>
      <maxWeakCount>11</maxWeakCount>
      <stageThreshold>-8.0300354957580566e-01</stageThreshold>
      <weakClassifiers>
        <_>
          <internalNodes>
            0 -1 64 1846148665 2118971375 -1436405777 -148161364
            1072836447 1602096927 741289767 1388541479</internalNodes>
          <leafValues>
            -3.8498210906982422e-01 5.4091107845306396e-01</leafValues></_>
        <_>
          <internalNodes>
            0 -1 110 -480418721 -1349666659 1312570719 1878502713
            -142617251 -134754476 -926967974 -574619697</internalNodes>
          <leafValues>
            -2.9132148623466492e-01 5.8880281448364258e-01</leafValues></_>
        <_>
          <internalNodes>
            0 -1 88 389200344 -86671277 -854880253 55054532 -2124135472
            1328169136 -334859585 1409180121</internalNodes>
          <leafValues>
            -4.6632736921310425e-01 3.8236641883850098e-01</leafValues></_>
        <_>
          <internalNodes>
            0 -1 18 858866651 1907320553 -2086841363 2066695814
            2004825327 -1279263027 30388174 -271593845</internalNodes>
          <leafValues>
            -2.7229985594749451e-01 6.8900012969970703e-01</leafValues></_>
        <_>
          <internalNodes>
            0 -1 94 -844717992 -514976513 -1831612406 -360527846
            1050825296 1115818252 -367240713 1380151884</internalNodes>
          <leafValues>
            -5.5815047025680542e-01 3.4823086857795715e-01</leafValues></_>
        <_>
          <internalNodes>
            0 -1 139 -402787953 137866030 -220769485 -742410477
            -674918897 50265966 1979053551 -1007160517</internalNodes>
          <leafValues>
            -3.5410991311073303e-01 5.4908287525177002e-01</leafValues></_>
        <_>
          <internalNodes>
            0 -1 134 200012672 87216402 -2079730608 1162854410
            -2080137103 -1794506710 17154192 -1655983953</internalNodes>
          <leafValues>
            -5.0389182567596436e-01 3.7772768735885620e-01</leafValues></_>
        <_>
          <internalNodes>
            0 -1 8 -748816577 347768647 -16786694 -109967862 1547027946
            1795028836 2012610658 -101743158</internalNodes>
          <leafValues>
            -3.3343362808227539e-01 5.4994076490402222e-01</leafValues></_>
        <_>
          <internalNodes>
            0 -1 70 -187760801 492239580 805240757 -172524173
            -1627689582 972834738 221882007 -921968502</internalNodes>
          <leafValues>
            -3.5086202621459961e-01 5.6066781282424927e-01</leafValues></_>
        <_>
          <internalNodes>
            0 -1 33 2034501340 2078424577 -1610836033 997599825
            1211372692 -1619179715 795843835 -1410586626</internalNodes>
          <leafValues>
            -4.2107436060905457e-01 4.8394158482551575e-01</leafValues></_>
        <_>
          <internalNodes>
            0 -1 23 -286392805 1400848286 -17830209 -1025048849
            2130597714 1467383639 1977431421 -119042209</internalNodes>
          <leafValues>
            -4.0127035975456238e-01 4.7548818588256836e-01</leafValues></_></weakClassifiers></_>
    <!-- stage 14 -->
    <_>
      <maxWeakCount>10</maxWeakCount>
      <stageThreshold>-6.4827698469161987e-01</stageThreshold>
      <weakClassifiers>
        <_>
          <internalNodes>
            0 -1 52 -1589729997 -637547089 -1611699115 -94374261
            -1389367413 -1937883649 -2062596099 -380702897</internalNodes>
          <leafValues>
            -1.2947300076484680e-01 7.0313501358032227e-01</leafValues></_>
        <_>
          <internalNodes>
            0 -1 65 151837018 1333260012 268373803 -1414550012
            -671154992 1494547932 1165349355 -1252479026</internalNodes>
          <leafValues>
            -4.0072992444038391e-01 4.4948041439056396e-01</leafValues></_>
        <_>
          <internalNodes>
            0 -1 2 -553662473 1694890998 -574668934 2105890 385622837
            352198591 -402696687 -876366337</internalNodes>
          <leafValues>
            -3.0217015743255615e-01 5.6052428483963013e-01</leafValues></_>
        <_>
          <internalNodes>
            0 -1 59 377194719 -1680621510 1364910 -2145745773 890374224
            -1954529256 1779141387 -78998705</internalNodes>
          <leafValues>
            -4.1879597306251526e-01 4.0189293026924133e-01</leafValues></_>
        <_>
          <internalNodes>
            0 -1 26 1518985578 -1786234556 -1905908906 301437192
            1208650446 -607846259 -888102758 1254171073</internalNodes>
          <leafValues>
            -4.8975658416748047e-01 3.4823468327522278e-01</leafValues></_>
        <_>
          <internalNodes>
            0 -1 116 -2079424262 515342617 -938407715 -12009387
            840181946 -104071016 1846149675 172119042</internalNodes>
          <leafValues>
            -4.8322927951812744e-01 3.7464541196823120e-01</leafValues></_>
        <_>
          <internalNodes>
            0 -1 126 135449087 -1627072124 -1325301518 395859224
            680175759 -1474690926 953419948 -1110449723</internalNodes>
          <leafValues>
            -4.3014377355575562e-01 4.2950969934463501e-01</leafValues></_>
        <_>
          <internalNodes>
            0 -1 48 -640541158 -597278453 1124222028 1611178073
            -1711144780 304193696 -1542024706 1719272203</internalNodes>
          <leafValues>
            -5.2150720357894897e-01 3.6907666921615601e-01</leafValues></_>
        <_>
          <internalNodes>
            0 -1 87 -758943014 2050450435 1343520789 459624475
            -1991597432 1629503524 1712388793 2079817225</internalNodes>
          <leafValues>
            -4.5539271831512451e-01 4.5903772115707397e-01</leafValues></_>
        <_>
          <internalNodes>
            0 -1 138 -1040190589 -1590727306 738190768 -537022709
            -841118315 -1061912585 1205643012 -1047290289</internalNodes>
          <leafValues>
            -3.6802002787590027e-01 5.2255052328109741e-01</leafValues></_></weakClassifiers></_></stages>
  <features>
    <_>
      <rect>
        0 3 1 3</rect></_>
    <_>
      <rect>
        0 3 4 4</rect></_>
    <_>
      <rect>
        0 4 1 8</rect></_>
    <_>
      <rect>
        0 4 3 4</rect></_>
    <_>
      <rect>
        0 5 1 3</rect></_>
    <_>
      <rect>
        0 5 1 10</rect></_>
    <_>
      <rect>
        0 6 1 4</rect></_>
    <_>
      <rect>
        0 6 2 4</rect></_>
    <_>
      <rect>
        0 6 2 5</rect></_>
    <_>
      <rect>
        0 6 2 6</rect></_>
    <_>
      <rect>
        0 7 2 5</rect></_>
    <_>
      <rect>
        0 12 2 12</rect></_>
    <_>
      <rect>
        0 14 1 4</rect></_>
    <_>
      <rect>
        0 17 1 8</rect></_>
    <_>
      <rect>
        0 32 1 2</rect></_>
    <_>
      <rect>
        0 32 1 4</rect></_>
    <_>
      <rect>
        0 33 1 4</rect></_>
    <_>
      <rect>
        0 38 1 1</rect></_>
    <_>
      <rect>
        1 0 16 2</rect></_>
    <_>
      <rect>
        1 2 9 15</rect></_>
    <_>
      <rect>
        2 3 9 9</rect></_>
    <_>
      <rect>
        2 3 9 12</rect></_>
    <_>
      <rect>
        2 5 2 13</rect></_>
    <_>
      <rect>
        2 36 1 1</rect></_>
    <_>
      <rect>
        3 10 8 13</rect></_>
    <_>
      <rect>
        3 25 8 8</rect></_>
    <_>
      <rect>
        3 31 15 6</rect></_>
    <_>
      <rect>
        3 35 4 4</rect></_>
    <_>
      <rect>
        4 0 3 1</rect></_>
    <_>
      <rect>
        4 1 8 8</rect></_>
    <_>
      <rect>
        4 2 4 3</rect></_>
    <_>
      <rect>
        4 4 3 4</rect></_>
    <_>
      <rect>
        4 6 2 4</rect></_>
    <_>
      <rect>
        4 44 3 2</rect></_>
    <_>
      <rect>
        5 0 1 1</rect></_>
    <_>
      <rect>
        5 0 4 1</rect></_>
    <_>
      <rect>
        5 0 5 2</rect></_>
    <_>
      <rect>
        5 1 4 2</rect></_>
    <_>
      <rect>
        5 3 4 4</rect></_>
    <_>
      <rect>
        6 0 4 1</rect></_>
    <_>
      <rect>
        6 38 13 4</rect></_>
    <_>
      <rect>
        7 0 5 1</rect></_>
    <_>
      <rect>
        7 19 5 5</rect></_>
    <_>
      <rect>
        7 20 4 4</rect></_>
    <_>
      <rect>
        7 20 14 10</rect></_>
    <_>
      <rect>
        7 37 6 4</rect></_>
    <_>
      <rect>
        8 3 9 4</rect></_>
    <_>
      <rect>
        8 4 10 7</rect></_>
    <_>
      <rect>
        8 12 8 5</rect></_>
    <_>
      <rect>
        9 10 10 9</rect></_>
    <_>
      <rect>
        11 12 5 5</rect></_>
    <_>
      <rect>
        11 20 7 7</rect></_>
    <_>
      <rect>
        12 8 4 5</rect></_>
    <_>
      <rect>
        12 16 6 6</rect></_>
    <_>
      <rect>
        13 2 7 10</rect></_>
    <_>
      <rect>
        13 5 8 5</rect></_>
    <_>
      <rect>
        13 10 5 6</rect></_>
    <_>
      <rect>
        13 13 2 3</rect></_>
    <_>
      <rect>
        13 26 8 5</rect></_>
    <_>
      <rect>
        13 28 2 2</rect></_>
    <_>
      <rect>
        14 19 5 4</rect></_>
    <_>
      <rect>
        14 21 4 5</rect></_>
    <_>
      <rect>
        14 25 3 4</rect></_>
    <_>
      <rect>
        15 11 2 3</rect></_>
    <_>
      <rect>
        15 23 5 3</rect></_>
    <_>
      <rect>
        15 24 6 5</rect></_>
    <_>
      <rect>
        15 25 2 3</rect></_>
    <_>
      <rect>
        15 25 3 3</rect></_>
    <_>
      <rect>
        17 20 4 3</rect></_>
    <_>
      <rect>
        17 26 3 2</rect></_>
    <_>
      <rect>
        17 32 7 5</rect></_>
    <_>
      <rect>
        17 33 3 2</rect></_>
    <_>
      <rect>
        17 34 8 5</rect></_>
    <_>
      <rect>
        18 0 10 1</rect></_>
    <_>
      <rect>
        18 21 1 1</rect></_>
    <_>
      <rect>
        18 26 5 3</rect></_>
    <_>
      <rect>
        18 27 5 3</rect></_>
    <_>
      <rect>
        19 3 10 15</rect></_>
    <_>
      <rect>
        19 11 5 4</rect></_>
    <_>
      <rect>
        19 16 3 2</rect></_>
    <_>
      <rect>
        19 22 5 4</rect></_>
    <_>
      <rect>
        19 28 5 2</rect></_>
    <_>
      <rect>
        20 2 9 8</rect></_>
    <_>
      <rect>
        20 10 3 5</rect></_>
    <_>
      <rect>
        20 23 3 2</rect></_>
    <_>
      <rect>
        20 24 3 4</rect></_>
    <_>
      <rect>
        20 29 3 4</rect></_>
    <_>
      <rect>
        21 2 9 10</rect></_>
    <_>
      <rect>
        21 20 4 4</rect></_>
    <_>
      <rect>
        21 30 9 6</rect></_>
    <_>
      <rect>
        22 10 4 5</rect></_>
    <_>
      <rect>
        22 33 4 2</rect></_>
    <_>
      <rect>
        23 11 4 4</rect></_>
    <_>
      <rect>
        23 16 4 4</rect></_>
    <_>
      <rect>
        23 24 5 5</rect></_>
    <_>
      <rect>
        24 17 3 4</rect></_>
    <_>
      <rect>
        25 6 7 6</rect></_>
    <_>
      <rect>
        25 7 7 13</rect></_>
    <_>
      <rect>
        25 10 3 7</rect></_>
    <_>
      <rect>
        25 16 3 5</rect></_>
    <_>
      <rect>
        25 24 1 1</rect></_>
    <_>
      <rect>
        26 0 5 2</rect></_>
    <_>
      <rect>
        26 3 8 5</rect></_>
    <_>
      <rect>
        26 28 3 4</rect></_>
    <_>
      <rect>
        26 28 7 7</rect></_>
    <_>
      <rect>
        26 31 3 2</rect></_>
    <_>
      <rect>
        26 38 6 4</rect></_>
    <_>
      <rect>
        27 15 2 4</rect></_>
    <_>
      <rect>
        27 26 2 2</rect></_>
    <_>
      <rect>
        28 0 5 2</rect></_>
    <_>
      <rect>
        28 16 3 2</rect></_>
    <_>
      <rect>
        30 0 5 1</rect></_>
    <_>
      <rect>
        31 27 5 6</rect></_>
    <_>
      <rect>
        32 23 4 5</rect></_>
    <_>
      <rect>
        32 27 6 7</rect></_>
    <_>
      <rect>
        32 42 4 2</rect></_>
    <_>
      <rect>
        33 0 4 2</rect></_>
    <_>
      <rect>
        33 2 2 1</rect></_>
    <_>
      <rect>
        33 25 5 6</rect></_>
    <_>
      <rect>
        34 0 3 1</rect></_>
    <_>
      <rect>
        34 0 4 3</rect></_>
    <_>
      <rect>
        34 12 5 6</rect></_>
    <_>
      <rect>
        34 19 3 6</rect></_>
    <_>
      <rect>
        35 3 4 3</rect></_>
    <_>
      <rect>
        35 24 5 5</rect></_>
    <_>
      <rect>
        35 43 2 2</rect></_>
    <_>
      <rect>
        35 45 1 1</rect></_>
    <_>
      <rect>
        36 0 3 1</rect></_>
    <_>
      <rect>
        36 41 4 2</rect></_>
    <_>
      <rect>
        37 9 4 6</rect></_>
    <_>
      <rect>
        37 23 4 8</rect></_>
    <_>
      <rect>
        38 1 4 16</rect></_>
    <_>
      <rect>
        38 4 4 2</rect></_>
    <_>
      <rect>
        38 35 3 3</rect></_>
    <_>
      <rect>
        40 32 3 4</rect></_>
    <_>
      <rect>
        41 5 3 3</rect></_>
    <_>
      <rect>
        43 5 2 5</rect></_>
    <_>
      <rect>
        43 32 2 3</rect></_>
    <_>
      <rect>
        44 30 2 3</rect></_>
    <_>
      <rect>
        44 35 2 2</rect></_>
    <_>
      <rect>
        45 34 1 1</rect></_>
    <_>
      <rect>
        46 5 1 4</rect></_></features></cascade>
</opencv_storage>
